{"neurons":[{"state":0.0,"bias":0.9456145806735716,"tau":0.39490082018120787,"weights":[-0.2076420373695571,-0.8607286266229,-0.525049795013229]},{"state":0.0,"bias":0.12675106959806715,"tau":0.21692699229513748,"weights":[0.7233035949291395,-0.9835727695963596,-0.29636109370791885]},{"state":0.0,"bias":-0.1519979103925504,"tau":0.9319968584518301,"weights":[-0.43272359471875455,-0.7475216167166744,1.3437508766811412]},{"state":0.0,"bias":-1.1265761287856264,"tau":0.5937323697071785,"weights":[-1.0142261592985249,1.3001658975346693,-0.38130859713525633]},{"state":0.0,"bias":-0.7890684003501528,"tau":0.17923714122367887,"weights":[0.5257942433377143,0.511046417526992,-0.09901265010755944]},{"state":0.0,"bias":-0.9564622092277788,"tau":0.5245442180174502,"weights":[0.24541028187844138,-0.21036417361429516,1.1773963702753638]},{"state":0.0,"bias":0.5097293115621033,"tau":0.6961938658407216,"weights":[0.20140104839131423,-1.243798737027611,-1.3785935511142446]},{"state":0.0,"bias":0.3543408311455354,"tau":0.9298459782600225,"weights":[1.287701753454561,-1.033388614592449,1.0830670907403797]},{"state":0.0,"bias":-0.7374750028591007,"tau":0.9751108330111041,"weights":[-0.3822169547471779,0.2550184129013344,-0.9223116970842811]},{"state":0.0,"bias":0.7884138619606926,"tau":0.16332030768397826,"weights":[-0.3757382062816004,0.669520109369304,-0.1661099848032308]}]}