{"neurons":[{"state":0.0,"bias":1.298956382270194,"tau":0.666272942812628,"weights":[-0.3365254298656015,-0.3592591263047167,1.0034565854455437]},{"state":0.0,"bias":0.43135717883666436,"tau":0.9820036635585367,"weights":[-1.4075541278386072,0.7380929732124326,0.9218657685548235]},{"state":0.0,"bias":-0.8690433197931036,"tau":0.9827907833338367,"weights":[-1.3499069912582378,-1.256404899523997,-0.6664794632719431]},{"state":0.0,"bias":0.5412547958347327,"tau":0.985424021487463,"weights":[-0.7156613015711155,0.06867508357404706,1.2440838059802684]},{"state":0.0,"bias":0.5102737430039699,"tau":0.28881366561721533,"weights":[-1.3106198942883052,0.9801580569554005,0.9871939693192016]},{"state":0.0,"bias":-1.231336795401829,"tau":0.6287007097554658,"weights":[-1.059689269596997,1.1491574891344032,-0.2977555348359895]},{"state":0.0,"bias":-0.9401636553573284,"tau":0.40609783938258637,"weights":[-0.18867030196508638,-1.2848798496459197,0.613330131774722]},{"state":0.0,"bias":-1.2137194700432445,"tau":0.5036720208564968,"weights":[-1.2378174974457645,1.3536643761761795,1.3059433974206727]},{"state":0.0,"bias":-0.7230203884996687,"tau":0.8739082079230849,"weights":[0.8036056935100635,-0.6309884044955583,-0.05821749991124814]},{"state":0.0,"bias":0.7293343016838343,"tau":0.41546254865217,"weights":[-0.3356108367347881,0.5262744842405649,-0.708999054335085]}]}