{"neurons":[{"state":0.0,"bias":-0.7900029769772121,"tau":0.10258106388718308,"weights":[-0.2081313296181646,-1.4075494192276181,1.1714448380934621]},{"state":0.0,"bias":-0.6283350750849601,"tau":0.15679710632052,"weights":[0.8417096175828827,-1.367704705257127,0.3992273746309385]},{"state":0.0,"bias":-1.027760154041765,"tau":0.8925178398382296,"weights":[0.20334879876902168,-1.2170453284068352,0.9748955276982716]},{"state":0.0,"bias":0.36087136597982306,"tau":0.7156688910468945,"weights":[0.9634913748492713,-0.02833766902058832,-0.571763803814109]},{"state":0.0,"bias":-0.17290997636419303,"tau":0.9493604713315922,"weights":[-0.369164599739942,-0.8009321012383434,0.5476494999822092]},{"state":0.0,"bias":-0.6764776375348539,"tau":0.10160247633084388,"weights":[-0.39100601841697546,-0.5321578746458514,0.4604750835119982]},{"state":0.0,"bias":1.2702048947511313,"tau":0.5198151039559722,"weights":[0.9913549432401465,0.7909439696494351,0.1172807459520786]},{"state":0.0,"bias":-0.41699289798294115,"tau":0.850459425285459,"weights":[0.9027745786989836,-0.8665160142316236,1.0753711423970571]},{"state":0.0,"bias":-1.3832931870622882,"tau":0.8112231520612713,"weights":[0.13714435140988024,1.3113756817171847,-1.0639670888377846]},{"state":0.0,"bias":1.2036845278513264,"tau":0.4522418324537578,"weights":[-0.765134119604975,-0.5045436321215654,-0.9529435563104417]}]}