{"neurons":[{"state":0.0,"bias":-1.1445535750596048,"tau":0.9631086971164726,"weights":[-0.6682840741044902,0.5036625770597962,-0.2813325260895887]},{"state":0.0,"bias":0.1504636516512623,"tau":0.9915540026580159,"weights":[0.6756256688621785,-0.5755543986305184,-0.6322351864238492]},{"state":0.0,"bias":0.4418755070621889,"tau":0.5840478336797786,"weights":[0.8970128728393292,0.231521416914253,-1.252648100665556]},{"state":0.0,"bias":-0.3709121530284123,"tau":0.9920335171265475,"weights":[1.2767764985789374,0.32647289794837286,-1.3190680483734614]},{"state":0.0,"bias":0.5971417148574021,"tau":0.2995424907419342,"weights":[-1.101133794409458,0.3464283551446472,0.9475459137625057]},{"state":0.0,"bias":-1.4038871964078146,"tau":0.5455632220222187,"weights":[-0.16478441067319283,0.6671552698462719,0.5311404495431176]},{"state":0.0,"bias":1.2995733315058213,"tau":0.407727569087756,"weights":[1.1464379227567643,-0.7491855701841508,0.9806022659571625]},{"state":0.0,"bias":-0.9941206918427801,"tau":0.5091444431433919,"weights":[-1.3920450996558404,-0.984506656921586,-0.41179367160845204]},{"state":0.0,"bias":1.2831588373315947,"tau":0.4310068552767259,"weights":[-1.1286439868283535,-0.8328766492005425,0.4212245285012497]},{"state":0.0,"bias":-1.3627560045117317,"tau":0.9683458987515147,"weights":[-1.2081246796451743,1.0898300247565287,-1.119508105929564]}]}