{"neurons":[{"state":0.0,"bias":-1.3285223119263907,"tau":0.8983006294872203,"weights":[0.9430077426219026,-0.18417846294426288,1.2900988562640718]},{"state":0.0,"bias":-1.3919901116713105,"tau":0.906593323391882,"weights":[-0.47269337153070456,0.3098871998398154,1.1977144626412513]},{"state":0.0,"bias":0.5162226034456647,"tau":0.5431571327621526,"weights":[-0.29544918989508373,0.0583334979385286,-1.0115515678580178]},{"state":0.0,"bias":1.184504625039043,"tau":0.11745488230142397,"weights":[0.07863541853220113,0.3360224357978481,-0.8539664709987344]},{"state":0.0,"bias":-0.09493429155788236,"tau":0.2209473884210693,"weights":[-1.3141460527210982,-1.2890936208967763,-0.6681640071547421]},{"state":0.0,"bias":1.0166995340990945,"tau":0.5288165615586423,"weights":[-0.19186557839169227,0.5634200579292825,-1.1434328351881675]},{"state":0.0,"bias":1.1716590628691177,"tau":0.48794274344957544,"weights":[-1.3603467334337658,1.0398878862246932,-1.156261406022768]},{"state":0.0,"bias":-0.7511333485053382,"tau":0.8727497362102699,"weights":[1.0721607072625623,1.3492012823541522,0.16233470982479936]},{"state":0.0,"bias":-0.155658576965497,"tau":0.9143570953122404,"weights":[-1.1561908545563595,0.33859771596371036,-1.1514536488873952]},{"state":0.0,"bias":0.7284546849709941,"tau":0.8081320114005759,"weights":[1.0935972045902644,-0.3739080085919939,1.2370987131122184]}]}