{"neurons":[{"state":0.0,"bias":0.679601032968282,"tau":0.8209377401503288,"weights":[-0.9417152988028872,0.9130482816909022,-0.34231380347406115]},{"state":0.0,"bias":0.1787911484403848,"tau":0.6754197372038109,"weights":[1.2618156664959643,0.15391966023223946,-0.6485876940017142]},{"state":0.0,"bias":-1.2325626349408454,"tau":0.46949803432418336,"weights":[0.557957163843269,1.1706876555732733,-0.8765453372403139]},{"state":0.0,"bias":-0.09025486420402618,"tau":0.37230598670122594,"weights":[-0.27777306798059764,-0.45618288589071,0.5390887995686304]},{"state":0.0,"bias":0.4780109271611459,"tau":0.20272693326587832,"weights":[-0.30410610793752113,-0.29590654264202687,1.0849226381520325]},{"state":0.0,"bias":-0.13219897924529023,"tau":0.7979284207731603,"weights":[0.9327308123937532,-1.3659056885322027,-1.3206231169098621]},{"state":0.0,"bias":0.2544974139284364,"tau":0.487856372089303,"weights":[0.0349197359339426,-0.1512548375876306,-0.8804319012453666]},{"state":0.0,"bias":-0.6041962497786157,"tau":0.73715005182866,"weights":[0.39978812327114355,0.4988308538415578,-0.8385964847559304]},{"state":0.0,"bias":0.44531266238456646,"tau":0.8838743293122365,"weights":[-0.3723739682439191,0.9304275919549945,-0.6739906506294752]},{"state":0.0,"bias":-1.3481294407930047,"tau":0.21731319915797068,"weights":[1.0083772772999564,-0.9966430847684844,-1.0657195336649625]}]}